FANN_FLO_2.1
num_layers=3
learning_rate=0.700000
connection_rate=1.000000
network_type=0
learning_momentum=0.000000
training_algorithm=2
train_error_function=1
train_stop_function=0
cascade_output_change_fraction=0.010000
quickprop_decay=-0.000100
quickprop_mu=1.750000
rprop_increase_factor=1.200000
rprop_decrease_factor=0.500000
rprop_delta_min=0.000000
rprop_delta_max=50.000000
rprop_delta_zero=0.100000
cascade_output_stagnation_epochs=12
cascade_candidate_change_fraction=0.010000
cascade_candidate_stagnation_epochs=12
cascade_max_out_epochs=150
cascade_min_out_epochs=50
cascade_max_cand_epochs=150
cascade_min_cand_epochs=50
cascade_num_candidate_groups=2
bit_fail_limit=2.70000010728836059570e-01
cascade_candidate_limit=1.00000000000000000000e+03
cascade_weight_multiplier=4.00000005960464477539e-01
cascade_activation_functions_count=10
cascade_activation_functions=3 5 7 8 10 11 14 15 16 17 
cascade_activation_steepnesses_count=4
cascade_activation_steepnesses=2.50000000000000000000e-01 5.00000000000000000000e-01 7.50000000000000000000e-01 1.00000000000000000000e+00 
layer_sizes=26 8 2 
scale_included=0
neurons (num_inputs, activation_function, activation_steepness)=(0, 0, 0.00000000000000000000e+00) (0, 0, 0.00000000000000000000e+00) (0, 0, 0.00000000000000000000e+00) (0, 0, 0.00000000000000000000e+00) (0, 0, 0.00000000000000000000e+00) (0, 0, 0.00000000000000000000e+00) (0, 0, 0.00000000000000000000e+00) (0, 0, 0.00000000000000000000e+00) (0, 0, 0.00000000000000000000e+00) (0, 0, 0.00000000000000000000e+00) (0, 0, 0.00000000000000000000e+00) (0, 0, 0.00000000000000000000e+00) (0, 0, 0.00000000000000000000e+00) (0, 0, 0.00000000000000000000e+00) (0, 0, 0.00000000000000000000e+00) (0, 0, 0.00000000000000000000e+00) (0, 0, 0.00000000000000000000e+00) (0, 0, 0.00000000000000000000e+00) (0, 0, 0.00000000000000000000e+00) (0, 0, 0.00000000000000000000e+00) (0, 0, 0.00000000000000000000e+00) (0, 0, 0.00000000000000000000e+00) (0, 0, 0.00000000000000000000e+00) (0, 0, 0.00000000000000000000e+00) (0, 0, 0.00000000000000000000e+00) (0, 0, 0.00000000000000000000e+00) (26, 6, 5.00000000000000000000e-01) (26, 6, 5.00000000000000000000e-01) (26, 6, 5.00000000000000000000e-01) (26, 6, 5.00000000000000000000e-01) (26, 6, 5.00000000000000000000e-01) (26, 6, 5.00000000000000000000e-01) (26, 6, 5.00000000000000000000e-01) (0, 6, 5.00000000000000000000e-01) (8, 5, 5.00000000000000000000e-01) (0, 5, 5.00000000000000000000e-01) 
connections (connected_to_neuron, weight)=(0, -4.27033275365829467773e-01) (1, -2.48986984252929687500e+02) (2, 5.13740587234497070312e+00) (3, 1.95579528808593750000e+01) (4, 1.86593132019042968750e+01) (5, 3.48415040969848632812e+00) (6, 3.89159507751464843750e+01) (7, 6.27268981933593750000e+01) (8, 8.72192764282226562500e+01) (9, 1.49703811645507812500e+02) (10, 1.70139221191406250000e+02) (11, 2.26101837158203125000e+02) (12, 2.41048248291015625000e+02) (13, 3.16310485839843750000e+02) (14, 3.83496673583984375000e+02) (15, 3.99946960449218750000e+02) (16, 4.78991842269897460938e+00) (17, -3.99009857177734375000e+01) (18, 3.51862487792968750000e+01) (19, 1.27117443847656250000e+03) (20, -1.10296382904052734375e+01) (21, -1.56240615844726562500e+02) (22, -1.88146533966064453125e+01) (23, -3.46212272644042968750e+01) (24, 6.43189239501953125000e+01) (25, 1.20594584941864013672e+00) (0, 5.15630073547363281250e+01) (1, -2.37344379425048828125e+01) (2, -5.91213941574096679688e-01) (3, 2.07946926355361938477e-01) (4, 5.33416366577148437500e+01) (5, 7.01635665893554687500e+01) (6, 4.11658096313476562500e+01) (7, 2.01270885467529296875e+01) (8, 1.04194287109375000000e+03) (9, -4.67435974121093750000e+02) (10, 1.78718170166015625000e+02) (11, -5.90539611816406250000e+02) (12, -6.12628845214843750000e+02) (13, -6.21826416015625000000e+02) (14, -6.72478149414062500000e+02) (15, -7.93608276367187500000e+02) (16, 1.50000000000000000000e+03) (17, 1.50000000000000000000e+03) (18, -5.25727806091308593750e+01) (19, 1.27117443847656250000e+03) (20, -1.63823852539062500000e+02) (21, -2.58886337280273437500e+01) (22, -1.73182968139648437500e+02) (23, -1.85786285400390625000e+01) (24, -2.58179492950439453125e+01) (25, -4.41832482814788818359e-01) (0, -7.80747771263122558594e-01) (1, 1.06004059314727783203e+00) (2, 1.43435522913932800293e-01) (3, 1.11417257785797119141e+00) (4, 8.46750795841217041016e-01) (5, -1.02311038970947265625e+00) (6, 1.01528488099575042725e-01) (7, 7.50566720962524414062e-01) (8, -1.84408092498779296875e+00) (9, 8.11364555358886718750e+00) (10, 1.26704511642456054688e+01) (11, 1.89599552154541015625e+01) (12, 2.58246192932128906250e+01) (13, 3.09392490386962890625e+01) (14, 3.77639694213867187500e+01) (15, 2.90994107723236083984e-01) (16, -1.98603260517120361328e+00) (17, -4.81726884841918945312e+00) (18, -1.99250471591949462891e+00) (19, 1.81067907810211181641e+00) (20, 4.32155179977416992188e+00) (21, 9.55412626266479492188e-01) (22, 4.44620561599731445312e+00) (23, 2.25518083572387695312e+00) (24, -1.24746203422546386719e+00) (25, -6.08379859477281570435e-03) (0, 7.37256646156311035156e-01) (1, -6.95308113098144531250e+00) (2, 1.77107691764831542969e+00) (3, -1.93430066108703613281e+00) (4, -1.16729211807250976562e+01) (5, -2.04589509963989257812e+00) (6, 2.93722486495971679688e+00) (7, 1.38292989730834960938e+01) (8, 6.39467735290527343750e+01) (9, 1.10081680297851562500e+02) (10, 1.55714569091796875000e+02) (11, 1.49996826171875000000e+03) (12, 1.50000000000000000000e+03) (13, 1.49983898925781250000e+03) (14, 3.28182586669921875000e+02) (15, 3.62117004394531250000e+02) (16, -1.22041397094726562500e+01) (17, -1.64448413848876953125e+01) (18, 1.05035209655761718750e+01) (19, 1.27117443847656250000e+03) (20, 1.97365455627441406250e+01) (21, -3.66674876213073730469e+00) (22, -1.66560955047607421875e+01) (23, -8.47185420989990234375e+00) (24, 8.98333930969238281250e+00) (25, 9.29227948188781738281e-01) (0, -2.52040977478027343750e+01) (1, 2.00220756530761718750e+01) (2, 1.11474764347076416016e+00) (3, 4.07506990432739257812e+00) (4, -4.23698949813842773438e+00) (5, -1.03046188354492187500e+01) (6, 2.23537087440490722656e+00) (7, 1.49206371307373046875e+01) (8, -1.37962131500244140625e+01) (9, 1.35577666759490966797e+00) (10, 2.69523677825927734375e+01) (11, 3.53163185119628906250e+01) (12, 6.05700492858886718750e+01) (13, 7.89587097167968750000e+01) (14, 6.99599609375000000000e+01) (15, 1.40106658935546875000e+02) (16, 1.43763027191162109375e+01) (17, 2.51276664733886718750e+01) (18, 1.96459693908691406250e+01) (19, 1.27117443847656250000e+03) (20, 7.03813476562500000000e+01) (21, 1.04433765411376953125e+01) (22, 5.77394008636474609375e+00) (23, 1.14046878814697265625e+01) (24, 9.92184448242187500000e+00) (25, 5.46344757080078125000e-01) (0, -1.28263521194458007812e+00) (1, -1.95316200256347656250e+01) (2, -7.91789948940277099609e-01) (3, -4.64670568704605102539e-01) (4, -3.58328223228454589844e+00) (5, -1.62042200565338134766e+00) (6, -5.72702169418334960938e+00) (7, -3.16932582855224609375e+00) (8, 1.09464063644409179688e+01) (9, -1.45147085189819335938e+01) (10, -3.71684684753417968750e+01) (11, -4.50220222473144531250e+01) (12, -5.70733718872070312500e+01) (13, -9.00313186645507812500e+01) (14, -6.89039840698242187500e+01) (15, 1.50000000000000000000e+03) (16, 6.72438335418701171875e+00) (17, 1.13744583129882812500e+02) (18, 1.50000000000000000000e+03) (19, -1.21199960708618164062e+01) (20, -2.18095512390136718750e+01) (21, -1.71906982421875000000e+02) (22, 1.70497570037841796875e+01) (23, 7.95213794708251953125e+00) (24, -1.06939544677734375000e+01) (25, -4.40502822399139404297e-01) (0, -7.06393063068389892578e-01) (1, 1.48630212402343750000e+03) (2, 8.12666296958923339844e-01) (3, 1.50311398506164550781e+00) (4, 6.28375589847564697266e-01) (5, -3.26160453259944915771e-02) (6, 1.15163588523864746094e+00) (7, 1.15032637119293212891e+00) (8, 1.71363687515258789062e+00) (9, -1.93647003173828125000e+01) (10, -2.23139171600341796875e+01) (11, -3.71183128356933593750e+01) (12, -4.85031394958496093750e+01) (13, -5.49388160705566406250e+01) (14, -7.09185028076171875000e+01) (15, -6.63745269775390625000e+01) (16, 7.16242218017578125000e+00) (17, 3.64602828025817871094e+00) (18, -3.63255405426025390625e+00) (19, -8.67938339710235595703e-01) (20, 1.50000000000000000000e+03) (21, -5.67717590332031250000e+02) (22, -4.89569152832031250000e+02) (23, -4.43413305282592773438e+00) (24, 5.68232917785644531250e+00) (25, 7.63046801090240478516e-01) (26, -9.53234016895294189453e-01) (27, -2.85115927457809448242e-01) (28, 5.15831613540649414062e+00) (29, -1.27377986907958984375e+00) (30, -1.38562679290771484375e+00) (31, 1.16738438606262207031e+00) (32, 2.49759101867675781250e+00) (33, 7.17293620109558105469e-02) 
