FANN_FLO_2.1
num_layers=3
learning_rate=0.700000
connection_rate=1.000000
network_type=0
learning_momentum=0.000000
training_algorithm=2
train_error_function=1
train_stop_function=0
cascade_output_change_fraction=0.010000
quickprop_decay=-0.000100
quickprop_mu=1.750000
rprop_increase_factor=1.200000
rprop_decrease_factor=0.500000
rprop_delta_min=0.000000
rprop_delta_max=50.000000
rprop_delta_zero=0.100000
cascade_output_stagnation_epochs=12
cascade_candidate_change_fraction=0.010000
cascade_candidate_stagnation_epochs=12
cascade_max_out_epochs=150
cascade_min_out_epochs=50
cascade_max_cand_epochs=150
cascade_min_cand_epochs=50
cascade_num_candidate_groups=2
bit_fail_limit=2.70000010728836059570e-01
cascade_candidate_limit=1.00000000000000000000e+03
cascade_weight_multiplier=4.00000005960464477539e-01
cascade_activation_functions_count=10
cascade_activation_functions=3 5 7 8 10 11 14 15 16 17 
cascade_activation_steepnesses_count=4
cascade_activation_steepnesses=2.50000000000000000000e-01 5.00000000000000000000e-01 7.50000000000000000000e-01 1.00000000000000000000e+00 
layer_sizes=26 8 2 
scale_included=0
neurons (num_inputs, activation_function, activation_steepness)=(0, 0, 0.00000000000000000000e+00) (0, 0, 0.00000000000000000000e+00) (0, 0, 0.00000000000000000000e+00) (0, 0, 0.00000000000000000000e+00) (0, 0, 0.00000000000000000000e+00) (0, 0, 0.00000000000000000000e+00) (0, 0, 0.00000000000000000000e+00) (0, 0, 0.00000000000000000000e+00) (0, 0, 0.00000000000000000000e+00) (0, 0, 0.00000000000000000000e+00) (0, 0, 0.00000000000000000000e+00) (0, 0, 0.00000000000000000000e+00) (0, 0, 0.00000000000000000000e+00) (0, 0, 0.00000000000000000000e+00) (0, 0, 0.00000000000000000000e+00) (0, 0, 0.00000000000000000000e+00) (0, 0, 0.00000000000000000000e+00) (0, 0, 0.00000000000000000000e+00) (0, 0, 0.00000000000000000000e+00) (0, 0, 0.00000000000000000000e+00) (0, 0, 0.00000000000000000000e+00) (0, 0, 0.00000000000000000000e+00) (0, 0, 0.00000000000000000000e+00) (0, 0, 0.00000000000000000000e+00) (0, 0, 0.00000000000000000000e+00) (0, 0, 0.00000000000000000000e+00) (26, 6, 5.00000000000000000000e-01) (26, 6, 5.00000000000000000000e-01) (26, 6, 5.00000000000000000000e-01) (26, 6, 5.00000000000000000000e-01) (26, 6, 5.00000000000000000000e-01) (26, 6, 5.00000000000000000000e-01) (26, 6, 5.00000000000000000000e-01) (0, 6, 5.00000000000000000000e-01) (8, 5, 5.00000000000000000000e-01) (0, 5, 5.00000000000000000000e-01) 
connections (connected_to_neuron, weight)=(0, 1.06276184320449829102e-01) (1, -1.37983064651489257812e+01) (2, 3.40039998292922973633e-01) (3, 1.09841165542602539062e+01) (4, 1.17409725189208984375e+01) (5, 7.68572044372558593750e+00) (6, 1.44614229202270507812e+01) (7, 1.42383289337158203125e+01) (8, -2.08074512481689453125e+01) (9, -1.30804824829101562500e+01) (10, -1.02437591552734375000e+01) (11, -7.60353326797485351562e+00) (12, -1.17080526351928710938e+01) (13, -4.50000152587890625000e+01) (14, -9.95987167358398437500e+01) (15, 1.72649073600769042969e+00) (16, -4.43059778213500976562e+00) (17, -5.73222398757934570312e+00) (18, -1.55047667026519775391e+00) (19, 1.50000000000000000000e+03) (20, 1.50000000000000000000e+03) (21, 5.06863021850585937500e+00) (22, -3.73020052909851074219e+00) (23, 6.67413100600242614746e-02) (24, -9.71359983086585998535e-02) (25, 3.70681196451187133789e-01) (0, 2.62558221817016601562e-01) (1, -6.21472501754760742188e+00) (2, 1.08092904090881347656e-01) (3, 9.65344309806823730469e-01) (4, 5.52834129333496093750e+00) (5, 2.95422148704528808594e+00) (6, 5.74346184730529785156e-01) (7, -9.39513623714447021484e-01) (8, 1.66756134033203125000e+01) (9, -3.18922209739685058594e+00) (10, -2.94047570228576660156e+00) (11, -1.97323780059814453125e+01) (12, -2.16383838653564453125e+01) (13, -3.51283149719238281250e+01) (14, -2.93761348724365234375e+01) (15, -7.08433151245117187500e+01) (16, 6.73433065414428710938e+00) (17, 8.54154467582702636719e-01) (18, -3.51099276542663574219e+00) (19, -5.80771303176879882812e+00) (20, -6.39435529708862304688e+00) (21, -6.44813346862792968750e+00) (22, -4.15458023548126220703e-01) (23, -3.97757053375244140625e+00) (24, 4.49523878097534179688e+00) (25, 2.95054882764816284180e-01) (0, 3.23440790176391601562e+00) (1, -6.07039165496826171875e+00) (2, 5.24480044841766357422e-01) (3, 3.35334491729736328125e+00) (4, 1.20524168014526367188e+01) (5, 8.86443805694580078125e+00) (6, 1.55139284133911132812e+01) (7, 1.80756759643554687500e+01) (8, 2.39164047241210937500e+01) (9, 5.89257240295410156250e+01) (10, 8.80977325439453125000e+01) (11, 9.56833114624023437500e+01) (12, 1.15218803405761718750e+02) (13, 1.31135665893554687500e+02) (14, 1.50000000000000000000e+03) (15, 9.68137512207031250000e+01) (16, -1.36520738601684570312e+01) (17, -1.23551788330078125000e+01) (18, -1.83554172515869140625e+01) (19, -2.26781044006347656250e+01) (20, 1.52117948532104492188e+01) (21, -7.86213397979736328125e+00) (22, 3.74087762832641601562e+00) (23, -1.03502168655395507812e+01) (24, 6.45786285400390625000e+00) (25, 2.53175616264343261719e-01) (0, 6.32483601570129394531e-01) (1, -3.76765441894531250000e+00) (2, 3.58596593141555786133e-01) (3, 5.81455564498901367188e+00) (4, 3.61716938018798828125e+00) (5, -1.13830697536468505859e+00) (6, 5.87281751632690429688e+00) (7, 1.00538101196289062500e+01) (8, -6.69911479949951171875e+00) (9, 8.52693843841552734375e+00) (10, 1.24810409545898437500e+01) (11, 3.23709182739257812500e+01) (12, 3.52399291992187500000e+01) (13, -2.67946033477783203125e+01) (14, -2.37506694793701171875e+01) (15, 1.83215164184570312500e+02) (16, -1.83151841163635253906e+00) (17, -5.51530241966247558594e-01) (18, 7.46200990676879882812e+00) (19, 2.22559967041015625000e+01) (20, -9.08009433746337890625e+00) (21, -2.69610881805419921875e+00) (22, -1.31442031860351562500e+01) (23, -2.14571762084960937500e+00) (24, 5.52653932571411132812e+00) (25, 3.56312721967697143555e-01) (0, -3.73481416702270507812e+00) (1, -4.83843040466308593750e+01) (2, 8.76745402812957763672e-01) (3, 6.12940406799316406250e+00) (4, 6.50049686431884765625e+00) (5, -6.63042163848876953125e+00) (6, 3.42625069618225097656e+00) (7, 1.13633155822753906250e+01) (8, 5.37213087081909179688e+00) (9, 2.34129199981689453125e+01) (10, 2.29095535278320312500e+01) (11, 7.30052900314331054688e+00) (12, 1.45161228179931640625e+01) (13, 1.26006884765625000000e+03) (14, -5.59045166015625000000e+02) (15, -1.19281066894531250000e+02) (16, -1.79749798774719238281e+00) (17, 1.67919521331787109375e+01) (18, 2.72342281341552734375e+01) (19, 5.02515792846679687500e+01) (20, 2.93977699279785156250e+01) (21, -1.60421085357666015625e+01) (22, 1.62875056266784667969e+00) (23, -2.09727592468261718750e+01) (24, 2.75394210815429687500e+01) (25, 8.22205841541290283203e-01) (0, 2.28188443183898925781e+00) (1, -1.07834124565124511719e+00) (2, -4.02849882841110229492e-01) (3, -1.05364475250244140625e+01) (4, -1.20048856735229492188e+01) (5, 5.54013061523437500000e+00) (6, -3.19949769973754882812e+00) (7, -1.27805118560791015625e+01) (8, -2.80999298095703125000e+01) (9, -5.54819030761718750000e+01) (10, -9.16324005126953125000e+01) (11, -1.09348770141601562500e+02) (12, -1.40497879028320312500e+02) (13, -8.21557373046875000000e+02) (14, -2.19724182128906250000e+02) (15, -1.50000000000000000000e+03) (16, 5.18424892425537109375e+00) (17, 2.89614200592041015625e+00) (18, 4.79335069656372070312e+00) (19, 3.85215911865234375000e+01) (20, 6.18985462188720703125e+00) (21, 4.05816125869750976562e+00) (22, 3.59308662414550781250e+01) (23, -2.75271892547607421875e+00) (24, 2.03033947944641113281e+00) (25, 4.19586181640625000000e-01) (0, -1.17232942581176757812e+00) (1, 3.52108917236328125000e+01) (2, 8.83645638823509216309e-02) (3, 2.86997032165527343750e+00) (4, 3.19134879112243652344e+00) (5, 1.25061321258544921875e+00) (6, 3.35145854949951171875e+00) (7, 4.53434038162231445312e+00) (8, 1.73373336791992187500e+01) (9, 2.53417587280273437500e+00) (10, -1.77837714552879333496e-01) (11, -1.36737241744995117188e+01) (12, -1.52283086776733398438e+01) (13, -2.78164253234863281250e+01) (14, -5.56979598999023437500e+01) (15, -6.73883056640625000000e+01) (16, 7.43104743957519531250e+00) (17, 4.83825349807739257812e+00) (18, -1.16507351398468017578e+00) (19, -3.64155054092407226562e+00) (20, -5.90865707397460937500e+00) (21, 1.90511970520019531250e+01) (22, 1.47000000000000000000e+03) (23, -7.21790170669555664062e+00) (24, 9.22555923461914062500e+00) (25, 5.16556680202484130859e-01) (26, 1.46547329425811767578e+00) (27, -2.27572846412658691406e+00) (28, -1.50118935108184814453e+00) (29, -2.79097723960876464844e+00) (30, -7.08615005016326904297e-01) (31, -1.28831434249877929688e+00) (32, 2.71839666366577148438e+00) (33, 4.13946807384490966797e-01) 
