FANN_FLO_2.1
num_layers=3
learning_rate=0.700000
connection_rate=1.000000
network_type=0
learning_momentum=0.000000
training_algorithm=2
train_error_function=1
train_stop_function=0
cascade_output_change_fraction=0.010000
quickprop_decay=-0.000100
quickprop_mu=1.750000
rprop_increase_factor=1.200000
rprop_decrease_factor=0.500000
rprop_delta_min=0.000000
rprop_delta_max=50.000000
rprop_delta_zero=0.100000
cascade_output_stagnation_epochs=12
cascade_candidate_change_fraction=0.010000
cascade_candidate_stagnation_epochs=12
cascade_max_out_epochs=150
cascade_min_out_epochs=50
cascade_max_cand_epochs=150
cascade_min_cand_epochs=50
cascade_num_candidate_groups=2
bit_fail_limit=2.70000010728836059570e-01
cascade_candidate_limit=1.00000000000000000000e+03
cascade_weight_multiplier=4.00000005960464477539e-01
cascade_activation_functions_count=10
cascade_activation_functions=3 5 7 8 10 11 14 15 16 17 
cascade_activation_steepnesses_count=4
cascade_activation_steepnesses=2.50000000000000000000e-01 5.00000000000000000000e-01 7.50000000000000000000e-01 1.00000000000000000000e+00 
layer_sizes=26 8 2 
scale_included=0
neurons (num_inputs, activation_function, activation_steepness)=(0, 0, 0.00000000000000000000e+00) (0, 0, 0.00000000000000000000e+00) (0, 0, 0.00000000000000000000e+00) (0, 0, 0.00000000000000000000e+00) (0, 0, 0.00000000000000000000e+00) (0, 0, 0.00000000000000000000e+00) (0, 0, 0.00000000000000000000e+00) (0, 0, 0.00000000000000000000e+00) (0, 0, 0.00000000000000000000e+00) (0, 0, 0.00000000000000000000e+00) (0, 0, 0.00000000000000000000e+00) (0, 0, 0.00000000000000000000e+00) (0, 0, 0.00000000000000000000e+00) (0, 0, 0.00000000000000000000e+00) (0, 0, 0.00000000000000000000e+00) (0, 0, 0.00000000000000000000e+00) (0, 0, 0.00000000000000000000e+00) (0, 0, 0.00000000000000000000e+00) (0, 0, 0.00000000000000000000e+00) (0, 0, 0.00000000000000000000e+00) (0, 0, 0.00000000000000000000e+00) (0, 0, 0.00000000000000000000e+00) (0, 0, 0.00000000000000000000e+00) (0, 0, 0.00000000000000000000e+00) (0, 0, 0.00000000000000000000e+00) (0, 0, 0.00000000000000000000e+00) (26, 6, 5.00000000000000000000e-01) (26, 6, 5.00000000000000000000e-01) (26, 6, 5.00000000000000000000e-01) (26, 6, 5.00000000000000000000e-01) (26, 6, 5.00000000000000000000e-01) (26, 6, 5.00000000000000000000e-01) (26, 6, 5.00000000000000000000e-01) (0, 6, 5.00000000000000000000e-01) (8, 5, 5.00000000000000000000e-01) (0, 5, 5.00000000000000000000e-01) 
connections (connected_to_neuron, weight)=(0, -4.62218566894531250000e+02) (1, 1.43473419189453125000e+02) (2, -1.95512588500976562500e+02) (3, -5.95198791503906250000e+02) (4, -1.06556994628906250000e+03) (5, 4.61708068847656250000e+02) (6, 8.37091491699218750000e+02) (7, 1.39678222656250000000e+03) (8, -1.49929370117187500000e+03) (9, 1.50000000000000000000e+03) (10, 1.41557348632812500000e+03) (11, 1.50000000000000000000e+03) (12, -1.50000000000000000000e+03) (13, -1.47863415527343750000e+03) (14, 9.50002441406250000000e+02) (15, -1.50000000000000000000e+03) (16, -1.44500000000000000000e+03) (17, 2.48640396118164062500e+02) (18, 3.26357604980468750000e+02) (19, -8.65958251953125000000e+02) (20, -1.40310339355468750000e+03) (21, 2.56438385009765625000e+02) (22, 3.46185188293457031250e+01) (23, -9.00333595275878906250e+00) (24, -3.44401073455810546875e+00) (25, -1.14817321300506591797e+00) (0, -1.80929541587829589844e+00) (1, -9.71333217620849609375e+00) (2, 8.47435593605041503906e-01) (3, 6.35949993133544921875e+00) (4, 3.99643778800964355469e+00) (5, -3.79241704940795898438e+00) (6, 8.53296375274658203125e+00) (7, 1.51445941925048828125e+01) (8, 7.02958762645721435547e-01) (9, 5.39948387145996093750e+01) (10, 6.48856201171875000000e+01) (11, 1.16371940612792968750e+02) (12, 1.36041564941406250000e+02) (13, 1.73665908813476562500e+02) (14, 1.97198852539062500000e+02) (15, 1.50000000000000000000e+03) (16, -1.20353384017944335938e+01) (17, 9.63900506496429443359e-01) (18, 1.35614995956420898438e+01) (19, 1.95812129974365234375e+01) (20, 1.47121423339843750000e+03) (21, -1.41514949798583984375e+01) (22, -8.28870010375976562500e+00) (23, -7.70751094818115234375e+00) (24, 1.24287738800048828125e+01) (25, 3.18020105361938476562e-01) (0, 2.20519424438476562500e+02) (1, 9.27462291717529296875e+00) (2, -6.25681638717651367188e+00) (3, 6.53110168457031250000e+02) (4, 4.61451293945312500000e+02) (5, 1.50000000000000000000e+03) (6, 1.50000000000000000000e+03) (7, 1.49371276855468750000e+03) (8, -6.79914184570312500000e+02) (9, -6.94617370605468750000e+02) (10, -6.85270446777343750000e+02) (11, -6.78122985839843750000e+02) (12, -6.39192321777343750000e+02) (13, -6.62851257324218750000e+02) (14, -6.67363464355468750000e+02) (15, -6.40783630371093750000e+02) (16, 9.52123641967773437500e+00) (17, 1.01077260971069335938e+01) (18, 9.69030857086181640625e+00) (19, -2.27849639892578125000e+02) (20, -2.25599288940429687500e+02) (21, 1.50000000000000000000e+03) (22, 6.58500909805297851562e+00) (23, 2.14894986152648925781e+00) (24, -4.60794162750244140625e+00) (25, -1.55166894197463989258e-01) (0, -1.55208420753479003906e+00) (1, -2.50026245117187500000e+01) (2, -3.92401695251464843750e-01) (3, 2.82039585113525390625e+01) (4, 6.60261535644531250000e+00) (5, -4.96660423278808593750e+01) (6, -3.50628547668457031250e+01) (7, -8.56096076965332031250e+00) (8, 1.40352798461914062500e+02) (9, 1.72369903564453125000e+02) (10, 1.86873855590820312500e+02) (11, 2.06894195556640625000e+02) (12, 2.44079147338867187500e+02) (13, 2.09303466796875000000e+02) (14, 2.27157028198242187500e+02) (15, 2.26778839111328125000e+02) (16, 2.00776901245117187500e+02) (17, 2.82598075866699218750e+01) (18, 3.23752708435058593750e+01) (19, 3.00359878540039062500e+01) (20, 3.73190917968750000000e+01) (21, -1.60394393920898437500e+02) (22, -6.37174491882324218750e+01) (23, -2.19576716423034667969e+00) (24, 1.77522373199462890625e+01) (25, 1.22139155864715576172e+00) (0, 1.59375047683715820312e+01) (1, 1.72897453308105468750e+01) (2, 1.62534928321838378906e+00) (3, 2.64008102416992187500e+01) (4, 1.10779006958007812500e+02) (5, 1.56299987792968750000e+02) (6, 2.43550079345703125000e+02) (7, 2.74310119628906250000e+02) (8, -2.60003601074218750000e+02) (9, -2.72633728027343750000e+02) (10, -2.04229385375976562500e+02) (11, -2.05336456298828125000e+02) (12, 1.50000000000000000000e+03) (13, -1.18285026550292968750e+02) (14, -8.32393035888671875000e+01) (15, 1.50000000000000000000e+03) (16, -5.63173370361328125000e+01) (17, 1.48980590820312500000e+03) (18, 1.49971826171875000000e+03) (19, 1.50000000000000000000e+03) (20, 1.47121423339843750000e+03) (21, 6.24614906311035156250e+00) (22, 1.09737567901611328125e+01) (23, 1.70883731842041015625e+01) (24, -2.89364261627197265625e+01) (25, 1.83092808723449707031e+00) (0, 6.86160266399383544922e-01) (1, 5.31101047992706298828e-01) (2, 5.20009219646453857422e-01) (3, 5.23849201202392578125e+00) (4, 1.00282211303710937500e+01) (5, 9.05447673797607421875e+00) (6, 2.08291397094726562500e+01) (7, 2.04811820983886718750e+01) (8, -1.13943300247192382812e+01) (9, 1.46714992523193359375e+01) (10, 2.54048576354980468750e+01) (11, 4.27683715820312500000e+01) (12, 9.29096374511718750000e+01) (13, 6.80075225830078125000e+01) (14, 8.44405593872070312500e+01) (15, 1.47126525878906250000e+02) (16, -5.91703701019287109375e+00) (17, 2.31613206863403320312e+00) (18, 8.78030681610107421875e+00) (19, 1.48858222961425781250e+01) (20, 1.97271709442138671875e+01) (21, 1.71992942690849304199e-01) (22, 1.98852229118347167969e+00) (23, 4.71771812438964843750e+00) (24, -5.05913686752319335938e+00) (25, -3.14903706312179565430e-02) (0, 1.44580764770507812500e+01) (1, -1.37442960739135742188e+01) (2, -8.38913545012474060059e-02) (3, -4.06381111145019531250e+01) (4, 3.75561943054199218750e+01) (5, 1.42581314086914062500e+02) (6, 1.62194274902343750000e+02) (7, 1.51139495849609375000e+02) (8, 4.55516386032104492188e+00) (9, -3.09792785644531250000e+01) (10, -9.91961956024169921875e+00) (11, -6.80346221923828125000e+01) (12, -3.86132354736328125000e+01) (13, -1.08541595458984375000e+02) (14, -7.62657699584960937500e+01) (15, -1.41113769531250000000e+02) (16, -6.68708801269531250000e+00) (17, -4.06969404220581054688e+00) (18, -6.12264537811279296875e+00) (19, -9.17555141448974609375e+00) (20, -1.55209188461303710938e+01) (21, -3.12132587432861328125e+01) (22, -1.67677628993988037109e+00) (23, -6.44831418991088867188e+00) (24, -8.70497989654541015625e+00) (25, 7.76599124073982238770e-02) (26, 9.79735612869262695312e-01) (27, -2.76214575767517089844e+00) (28, 2.72363424301147460938e+00) (29, -1.00008296966552734375e+00) (30, -9.93911087512969970703e-01) (31, 4.86319351196289062500e+00) (32, -1.22663748264312744141e+00) (33, -1.65290617942810058594e+00) 
